digraph Tree {
node [shape=box] ;
0 [label="X[1] <= 8.565\ngini = 0.172\nsamples = 2808\nvalue = [2541, 267]"] ;
1 [label="X[11] <= 22075.0\ngini = 0.418\nsamples = 168\nvalue = [50, 118]"] ;
0 -> 1 [labeldistance=2.5, labelangle=45, headlabel="True"] ;
2 [label="X[4] <= 3.235\ngini = 0.444\nsamples = 60\nvalue = [40, 20]"] ;
1 -> 2 ;
3 [label="X[3] <= 34.627\ngini = 0.18\nsamples = 10\nvalue = [1, 9]"] ;
2 -> 3 ;
4 [label="gini = 0.32\nsamples = 5\nvalue = [1, 4]"] ;
3 -> 4 ;
5 [label="gini = 0.0\nsamples = 5\nvalue = [0, 5]"] ;
3 -> 5 ;
6 [label="X[4] <= 21.225\ngini = 0.343\nsamples = 50\nvalue = [39, 11]"] ;
2 -> 6 ;
7 [label="X[7] <= 1.555\ngini = 0.149\nsamples = 37\nvalue = [34, 3]"] ;
6 -> 7 ;
8 [label="gini = 0.48\nsamples = 5\nvalue = [3, 2]"] ;
7 -> 8 ;
9 [label="X[3] <= 27.6\ngini = 0.061\nsamples = 32\nvalue = [31, 1]"] ;
7 -> 9 ;
10 [label="gini = 0.32\nsamples = 5\nvalue = [4, 1]"] ;
9 -> 10 ;
11 [label="gini = 0.0\nsamples = 27\nvalue = [27, 0]"] ;
9 -> 11 ;
12 [label="X[11] <= 9157.5\ngini = 0.473\nsamples = 13\nvalue = [5, 8]"] ;
6 -> 12 ;
13 [label="gini = 0.0\nsamples = 8\nvalue = [0, 8]"] ;
12 -> 13 ;
14 [label="gini = 0.0\nsamples = 5\nvalue = [5, 0]"] ;
12 -> 14 ;
15 [label="X[2] <= 22.925\ngini = 0.168\nsamples = 108\nvalue = [10, 98]"] ;
1 -> 15 ;
16 [label="X[6] <= 9.055\ngini = 0.463\nsamples = 11\nvalue = [7, 4]"] ;
15 -> 16 ;
17 [label="gini = 0.0\nsamples = 6\nvalue = [6, 0]"] ;
16 -> 17 ;
18 [label="gini = 0.32\nsamples = 5\nvalue = [1, 4]"] ;
16 -> 18 ;
19 [label="X[11] <= 57774.5\ngini = 0.06\nsamples = 97\nvalue = [3, 94]"] ;
15 -> 19 ;
20 [label="gini = 0.0\nsamples = 92\nvalue = [0, 92]"] ;
19 -> 20 ;
21 [label="gini = 0.48\nsamples = 5\nvalue = [3, 2]"] ;
19 -> 21 ;
22 [label="X[6] <= 45.43\ngini = 0.107\nsamples = 2640\nvalue = [2491, 149]"] ;
0 -> 22 [labeldistance=2.5, labelangle=-45, headlabel="False"] ;
23 [label="X[11] <= 30200.0\ngini = 0.086\nsamples = 2606\nvalue = [2488, 118]"] ;
22 -> 23 ;
24 [label="X[9] <= 34.415\ngini = 0.022\nsamples = 1996\nvalue = [1974, 22]"] ;
23 -> 24 ;
25 [label="X[3] <= 64.51\ngini = 0.01\nsamples = 1836\nvalue = [1827, 9]"] ;
24 -> 25 ;
26 [label="X[5] <= 3.13\ngini = 0.005\nsamples = 1817\nvalue = [1812, 5]"] ;
25 -> 26 ;
27 [label="X[6] <= 0.01\ngini = 0.002\nsamples = 1738\nvalue = [1736, 2]"] ;
26 -> 27 ;
28 [label="X[9] <= 27.425\ngini = 0.019\nsamples = 207\nvalue = [205, 2]"] ;
27 -> 28 ;
29 [label="gini = 0.0\nsamples = 198\nvalue = [198, 0]"] ;
28 -> 29 ;
30 [label="gini = 0.346\nsamples = 9\nvalue = [7, 2]"] ;
28 -> 30 ;
31 [label="gini = 0.0\nsamples = 1531\nvalue = [1531, 0]"] ;
27 -> 31 ;
32 [label="X[6] <= 0.2\ngini = 0.073\nsamples = 79\nvalue = [76, 3]"] ;
26 -> 32 ;
33 [label="gini = 0.48\nsamples = 5\nvalue = [3, 2]"] ;
32 -> 33 ;
34 [label="X[10] <= 98.97\ngini = 0.027\nsamples = 74\nvalue = [73, 1]"] ;
32 -> 34 ;
35 [label="gini = 0.32\nsamples = 5\nvalue = [4, 1]"] ;
34 -> 35 ;
36 [label="gini = 0.0\nsamples = 69\nvalue = [69, 0]"] ;
34 -> 36 ;
37 [label="X[3] <= 74.094\ngini = 0.332\nsamples = 19\nvalue = [15, 4]"] ;
25 -> 37 ;
38 [label="gini = 0.32\nsamples = 5\nvalue = [1, 4]"] ;
37 -> 38 ;
39 [label="gini = 0.0\nsamples = 14\nvalue = [14, 0]"] ;
37 -> 39 ;
40 [label="X[6] <= 0.055\ngini = 0.149\nsamples = 160\nvalue = [147, 13]"] ;
24 -> 40 ;
41 [label="gini = 0.469\nsamples = 8\nvalue = [3, 5]"] ;
40 -> 41 ;
42 [label="X[5] <= 1.595\ngini = 0.1\nsamples = 152\nvalue = [144, 8]"] ;
40 -> 42 ;
43 [label="gini = 0.0\nsamples = 123\nvalue = [123, 0]"] ;
42 -> 43 ;
44 [label="X[11] <= 23168.0\ngini = 0.4\nsamples = 29\nvalue = [21, 8]"] ;
42 -> 44 ;
45 [label="gini = 0.0\nsamples = 18\nvalue = [18, 0]"] ;
44 -> 45 ;
46 [label="X[8] <= 5.72\ngini = 0.397\nsamples = 11\nvalue = [3, 8]"] ;
44 -> 46 ;
47 [label="gini = 0.0\nsamples = 6\nvalue = [0, 6]"] ;
46 -> 47 ;
48 [label="gini = 0.48\nsamples = 5\nvalue = [3, 2]"] ;
46 -> 48 ;
49 [label="X[11] <= 33037.5\ngini = 0.265\nsamples = 610\nvalue = [514, 96]"] ;
23 -> 49 ;
50 [label="gini = 0.0\nsamples = 30\nvalue = [0, 30]"] ;
49 -> 50 ;
51 [label="X[6] <= 23.255\ngini = 0.202\nsamples = 580\nvalue = [514, 66]"] ;
49 -> 51 ;
52 [label="X[4] <= 51.465\ngini = 0.085\nsamples = 472\nvalue = [451, 21]"] ;
51 -> 52 ;
53 [label="X[11] <= 33676.5\ngini = 0.07\nsamples = 466\nvalue = [449, 17]"] ;
52 -> 53 ;
54 [label="X[6] <= 11.54\ngini = 0.386\nsamples = 23\nvalue = [17, 6]"] ;
53 -> 54 ;
55 [label="gini = 0.0\nsamples = 6\nvalue = [0, 6]"] ;
54 -> 55 ;
56 [label="gini = 0.0\nsamples = 17\nvalue = [17, 0]"] ;
54 -> 56 ;
57 [label="X[2] <= 61.725\ngini = 0.048\nsamples = 443\nvalue = [432, 11]"] ;
53 -> 57 ;
58 [label="X[6] <= 15.72\ngini = 0.04\nsamples = 438\nvalue = [429, 9]"] ;
57 -> 58 ;
59 [label="X[8] <= 2.722\ngini = 0.011\nsamples = 355\nvalue = [353, 2]"] ;
58 -> 59 ;
60 [label="X[7] <= 18.6\ngini = 0.006\nsamples = 346\nvalue = [345, 1]"] ;
59 -> 60 ;
61 [label="gini = 0.0\nsamples = 323\nvalue = [323, 0]"] ;
60 -> 61 ;
62 [label="X[8] <= 0.731\ngini = 0.083\nsamples = 23\nvalue = [22, 1]"] ;
60 -> 62 ;
63 [label="gini = 0.0\nsamples = 18\nvalue = [18, 0]"] ;
62 -> 63 ;
64 [label="gini = 0.32\nsamples = 5\nvalue = [4, 1]"] ;
62 -> 64 ;
65 [label="gini = 0.198\nsamples = 9\nvalue = [8, 1]"] ;
59 -> 65 ;
66 [label="X[6] <= 16.025\ngini = 0.154\nsamples = 83\nvalue = [76, 7]"] ;
58 -> 66 ;
67 [label="gini = 0.48\nsamples = 5\nvalue = [2, 3]"] ;
66 -> 67 ;
68 [label="X[3] <= 20.537\ngini = 0.097\nsamples = 78\nvalue = [74, 4]"] ;
66 -> 68 ;
69 [label="X[11] <= 58097.5\ngini = 0.397\nsamples = 11\nvalue = [8, 3]"] ;
68 -> 69 ;
70 [label="gini = 0.48\nsamples = 5\nvalue = [2, 3]"] ;
69 -> 70 ;
71 [label="gini = 0.0\nsamples = 6\nvalue = [6, 0]"] ;
69 -> 71 ;
72 [label="X[9] <= 54.06\ngini = 0.029\nsamples = 67\nvalue = [66, 1]"] ;
68 -> 72 ;
73 [label="gini = 0.0\nsamples = 62\nvalue = [62, 0]"] ;
72 -> 73 ;
74 [label="gini = 0.32\nsamples = 5\nvalue = [4, 1]"] ;
72 -> 74 ;
75 [label="gini = 0.48\nsamples = 5\nvalue = [3, 2]"] ;
57 -> 75 ;
76 [label="gini = 0.444\nsamples = 6\nvalue = [2, 4]"] ;
52 -> 76 ;
77 [label="X[1] <= 11.895\ngini = 0.486\nsamples = 108\nvalue = [63, 45]"] ;
51 -> 77 ;
78 [label="X[4] <= 46.95\ngini = 0.488\nsamples = 76\nvalue = [32, 44]"] ;
77 -> 78 ;
79 [label="X[11] <= 34141.0\ngini = 0.43\nsamples = 64\nvalue = [20, 44]"] ;
78 -> 79 ;
80 [label="gini = 0.0\nsamples = 5\nvalue = [5, 0]"] ;
79 -> 80 ;
81 [label="X[11] <= 57377.5\ngini = 0.379\nsamples = 59\nvalue = [15, 44]"] ;
79 -> 81 ;
82 [label="X[2] <= 8.865\ngini = 0.149\nsamples = 37\nvalue = [3, 34]"] ;
81 -> 82 ;
83 [label="gini = 0.5\nsamples = 6\nvalue = [3, 3]"] ;
82 -> 83 ;
84 [label="gini = 0.0\nsamples = 31\nvalue = [0, 31]"] ;
82 -> 84 ;
85 [label="X[1] <= 9.74\ngini = 0.496\nsamples = 22\nvalue = [12, 10]"] ;
81 -> 85 ;
86 [label="X[6] <= 38.07\ngini = 0.165\nsamples = 11\nvalue = [1, 10]"] ;
85 -> 86 ;
87 [label="gini = 0.0\nsamples = 6\nvalue = [0, 6]"] ;
86 -> 87 ;
88 [label="gini = 0.32\nsamples = 5\nvalue = [1, 4]"] ;
86 -> 88 ;
89 [label="gini = 0.0\nsamples = 11\nvalue = [11, 0]"] ;
85 -> 89 ;
90 [label="gini = 0.0\nsamples = 12\nvalue = [12, 0]"] ;
78 -> 90 ;
91 [label="X[1] <= 12.41\ngini = 0.061\nsamples = 32\nvalue = [31, 1]"] ;
77 -> 91 ;
92 [label="gini = 0.32\nsamples = 5\nvalue = [4, 1]"] ;
91 -> 92 ;
93 [label="gini = 0.0\nsamples = 27\nvalue = [27, 0]"] ;
91 -> 93 ;
94 [label="X[9] <= 18.715\ngini = 0.161\nsamples = 34\nvalue = [3, 31]"] ;
22 -> 94 ;
95 [label="gini = 0.444\nsamples = 9\nvalue = [3, 6]"] ;
94 -> 95 ;
96 [label="gini = 0.0\nsamples = 25\nvalue = [0, 25]"] ;
94 -> 96 ;
}